svm_type nu_svr
kernel_type rbf
gamma 0.03125
nr_class 2
total_sv 51
rho -1330.1383333333335
SV
-64 1:36807.2 2:19893.73 3:32954.31 4:3242.14 5:1174048.3 6:284604.28 
-64 1:35464.03 2:19449.95 3:20152.71 4:1738.25 5:1107876.3 6:270537.47 
-64 1:27877.75 2:17658.91 3:23979.82 4:1789.97 5:1189777.1 6:284524.14 
-64 1:16513.98 2:12791.82 3:22721.28 4:1756.22 5:1053183 6:279481.52 
-64 1:13134.57 2:12000.82 3:25836.62 4:1706.57 5:948438.54 6:290845.65 
-64 1:12841.42 2:12105.23 3:41703.38 4:1747.63 5:896246.75 6:63261.24 
-64 1:12153.52 2:11259.78 3:89883.3 4:1809.41 5:874197.74 6:189799 
-64 1:13035.38 2:12153.18 3:167233.85 4:1801.71 5:977675.78 6:227310 
-64 1:14486.46 2:13593.76 3:211753.53 4:1931.8 5:968034.71 6:203787 
-64 1:13893.85 2:13043.93 3:169375.65 4:1970.25 5:757288.11 6:239587 
-64 1:14730.83 2:13762.53 3:212322.76 4:1992.84 5:809429.01 6:253765 
-64 1:12822.16 2:11589.22 3:235585.56 4:1857.62 5:988690.51 6:264901 
-64 1:10409.51 2:9254.31 3:32981.48 4:2185.2 5:1038163.3 6:952723.1 
-64 1:9169.47 2:8235.82 3:45176.85 4:1473.73 5:1141945.1 6:873737 
-64 1:9341.04 2:8377.57 3:56472.34 4:1764.72 5:1210483 6:926632.98 
-64 1:8734.97 2:7866.58 3:43835.36 4:1608.89 5:909913.47 6:1029833 
-64 1:8820.52 2:7891.16 3:61464.02 4:1617.99 5:849000.09 6:1129186.2 
-17.956921386718761 1:8848.02 2:7999.38 3:103220.77 4:1674.06 5:816674.51 6:816895.99 
-64 1:9124.3 2:8272.68 3:55182.14 4:1548.56 5:859995.43 6:859730.7 
64 1:9717.23 2:8920.8 3:58764.25 4:1480.9 5:819767.28 6:839237 
-64 1:9831.22 2:9100.53 3:30112.1 4:1428.72 5:777719.45 6:833278 
-64 1:10201.84 2:9377.69 3:22310.36 4:1468.54 5:985787.82 6:962040.33 
-59.956921386718761 1:12909.8 2:12058.29 3:32187 4:1503.28 5:1388715.1 6:1089860.8 
-6.4061572265624136 1:12728.51 2:132168.65 3:34858.83 4:1623.17 5:1463778.1 6:1121903 
-62.556157226562391 1:8639.58 2:7939.81 3:44129.82 4:1557.47 5:941351.51 6:1158713 
-6.4869213867188478 1:9097.26 2:8327.46 3:47303.37 4:1594.33 5:904432.97 6:1153317 
-54.636921386718825 1:3007.16 2:2942.18 3:34616.04 4:877.54 5:1017289.7 6:1219849 
22.509602661132249 1:3354.53 2:3314.5 3:83206.25 4:879.04 5:1082145.4 6:1251524 
64 1:1994.18 2:1949.73 3:51768.72 4:908.34 5:1469686.9 6:1243663 
64 1:1806.6 2:1755.3 3:38904.96 4:1018.26 5:1522114.1 6:1311363 
64 1:1781.5 2:1740.98 3:40899.92 4:1029.71 5:1220765.7 6:1168890 
64 1:2061.47 2:1921.62 3:81163.9 4:1045.82 5:1265550.5 6:1257848 
20.530198669433958 1:1612.04 2:1572.03 3:62644.7 4:784.33 5:705828.22 6:1277495 
64 1:1314.08 2:1270.85 3:80592.9 4:730.97 5:695078.46 6:1209192 
64 1:1247.04 2:1198.81 3:35090.5 4:704.22 5:871435.82 6:1230578 
64 1:3243.83 2:3131.82 3:53479.29 4:806.93 5:835790.86 6:1208372 
64 1:2923 2:2801.26 3:83899.74 4:637.54 5:850020.62 6:1222252 
64 1:2633.83 2:2588.92 3:65218.98 4:836.3 5:1064728.3 6:1139143 
64 1:1872.25 2:1735.39 3:82300.26 4:872.36 5:1466351.6 6:1274953 
64 1:1762.96 2:1729.77 3:30891.07 4:910.97 5:1357273.9 6:1198753 
64 1:1601.38 2:1567.84 3:50751.21 4:904.93 5:1351872 6:1078481 
36.960198669433794 1:1689.06 2:1644.85 3:97699.45 4:933.99 5:1236351.4 6:1171470 
64 1:1814.3 2:1764.35 3:44151.34 4:972.36 5:887080.95 6:1155125 
64 1:1446.35 2:1400.2 3:50907.47 4:694.6 5:649349.04 6:1258420 
64 1:1296.3 2:1250.82 3:92604.2 4:730.15 5:614842.82 6:1242125 
64 1:1292.77 2:1281.05 3:60808.05 4:641.35 5:783784.81 6:1246415 
64 1:1295.19 2:1258.52 3:58973.74 4:741.78 5:738821.36 6:1231788 
64 1:1920.98 2:1919.26 3:41723.87 4:737.25 5:746523.08 6:1228692 
64 1:2663.89 2:2632.41 3:53080.4 4:686.48 5:813862.01 6:1221475 
64 1:2727.63 2:2724.04 3:66947.36 4:855.29 5:961095.36 6:1171328 
64 1:1845.01 2:1799.43 3:86431.98 4:959.83 5:1313217.8 6:1197946 
